0 0
1 -0.263644
2 -0.273485
3 -0.465682
4 -1.0036
5 -0.841274
6 -4.33341
7 -5.87756
8 -6.01588
9 -6.41851
10 3.53058
11 3.73046
12 1.95299
13 2.12176
14 1.98097
15 2.27906
16 2.42052
17 2.49379
18 2.39909
19 2.37381
20 2.43595
21 2.10309
22 1.94275
23 1.76974
24 2.74397
25 2.4802
26 2.03637
27 2.30396
28 2.01577
29 1.91766
30 1.92188
31 0.96332
32 1.34062
33 1.00809
34 1.18098
35 1.06501
36 1.299
37 1.22373
38 1.18029
39 1.28212
40 1.14929
41 1.50844
42 1.68682
43 1.84223
44 1.536
45 2.34926
46 2.51344
47 2.49314
48 2.41415
49 2.47052
50 2.11735
51 2.29025
52 2.28172
53 1.90698
54 1.94772
55 1.6443
56 1.72548
57 1.82375
58 2.14596
59 1.85367
60 1.89445
61 2.34186
62 2.50701
63 2.17357
64 1.9912
65 1.71808
66 1.43693
67 0.303147
68 0.563784
69 0.344049
70 0.303001
71 0.0733805
72 0.330475
73 0.432655
74 0.651111
75 0.925883
76 0.560229
77 0.429927
78 0.122608
79 0.224555
80 -0.0992693
81 0.0672756
82 -0.338981
83 -0.00203842
84 0.147408
85 0.500191
86 0.904105
87 0.984033
88 0.484959
89 0.767843
90 1.16042
91 0.805515
92 1.45368
93 1.31409
94 1.25385
95 0.98653
96 0.917462
97 0.334591
98 0.983008
99 1.34128
100 1.4034
101 1.52792
102 2.93739
103 3.16493
104 3.32057
105 3.4193
106 3.3542
107 3.70876
108 -40.2837
109 -40.1733
110 -39.5875
111 -39.3604
112 -39.1624
113 -39.4841
114 -39.5418
115 -49.1051
116 -49.3622
117 -49.4849
118 -49.5492
119 -49.8913
120 -49.8228
121 -49.6326
122 -49.3554
123 -49.5336
124 -49.3571
125 -49.1256
126 -49.0394
127 -48.8252
128 -49.1006
129 -48.8586
130 -49.1901
131 -48.8207
132 -49.162
133 -48.9085
134 -49.7018
135 -49.397
136 -49.462
137 -49.3711
138 -49.4662
139 -49.6738
140 -49.489
141 -49.7984
142 -49.6289
143 -49.8357
144 -50.3257
145 -50.585
146 -50.1795
147 -50.4403
148 -50.1047
149 -50.6467
150 -50.5765
151 -50.7899
152 -49.0245
153 -48.9683
154 -49.2791
155 -49.2129
156 -49.0851
157 -49.4154
158 -49.7465
159 -49.9759
160 -50.3366
161 -50.6386
162 -50.8057
163 -50.51
164 -50.1114
165 -49.9186
166 -49.6021
167 -49.3504
168 -49.0401
169 -48.8483
170 -48.4407
171 -48.648
172 -48.8229
173 -49.0968
174 -48.8273
175 -48.7083
176 -48.9108
177 -49.1723
178 -49.4727
179 -49.2602
180 -49.5583
181 -49.8922
182 -50.1843
183 -49.9341
184 -49.9441
185 -49.8783
186 -50.0852
187 -49.7722
188 -49.992
189 -50.2738
190 -50.4535
191 -50.7937
192 -50.6605
193 -50.834
