0 0
1 1.25131e-06
2 0.000128999
3 0.000132869
4 0.000304483
5 0.000387886
6 0.00240276
7 0.00199102
8 0.00187189
9 0.00204179
10 0.00277685
11 0.00278473
12 0.00222477
13 0.00223689
14 0.00223723
15 0.00195236
16 0.00190417
17 0.00192397
18 0.00221784
19 0.00192588
20 0.00143061
21 0.00151556
22 0.00141749
23 0.00119014
24 -0.000132263
25 -0.000205051
26 -2.29817e-05
27 8.05555e-05
28 7.45315e-05
29 0.000200673
30 0.000236807
31 0.00153164
32 0.00148965
33 0.00211332
34 0.002031
35 0.00213311
36 0.00196248
37 0.00199957
38 0.00193417
39 0.00183154
40 0.00186389
41 0.00191848
42 0.00188408
43 0.00232216
44 0.00249256
45 0.0020095
46 0.00217696
47 0.00204166
48 0.00209041
49 0.00233131
50 0.0021515
51 0.00236989
52 0.00221494
53 0.00217949
54 0.00201172
55 0.0021273
56 0.00220277
57 0.00207392
58 0.00208392
59 0.00209684
60 0.00219718
61 0.00178015
62 0.00139854
63 0.00142197
64 0.00142484
65 0.00144329
66 0.00140809
67 0.00245549
68 0.00242139
69 0.00239843
70 0.00227756
71 0.00239011
72 0.00249496
73 0.00253297
74 0.00245393
75 0.00245412
76 0.00266961
77 0.00271647
78 0.00271346
79 0.0026108
80 0.00281221
81 0.00297625
82 0.00309094
83 0.00289383
84 0.002859
85 0.00273486
86 0.00297854
87 0.00303189
88 0.00328373
89 0.00298878
90 0.00213703
91 0.00216352
92 0.00414961
93 0.00446559
94 0.00447828
95 0.0046419
96 0.00460979
97 0.00441915
98 0.00547883
99 0.00536058
100 0.00525784
101 0.00507831
102 0.0041713
103 0.00415461
104 0.00386647
105 0.00391135
106 0.00400671
107 0.00277525
108 -0.0500986
109 -0.0498363
110 -0.0504474
111 -0.0504703
112 -0.0507325
113 -0.0508103
114 -0.0508615
115 -0.0607267
116 -0.0608917
117 -0.0609074
118 -0.0614773
119 -0.0614665
120 -0.0613481
121 -0.0612303
122 -0.0611962
123 -0.0613435
124 -0.0613073
125 -0.061886
126 -0.0614466
127 -0.0615448
128 -0.0615763
129 -0.0618774
130 -0.0619473
131 -0.0618857
132 -0.0619167
133 -0.062054
134 -0.060255
135 -0.0606541
136 -0.0604565
137 -0.0606651
138 -0.0603033
139 -0.0602706
140 -0.060504
141 -0.0605057
142 -0.0606453
143 -0.0607058
144 -0.0608046
145 -0.0607716
146 -0.0607516
147 -0.0608709
148 -0.0608485
149 -0.0606927
150 -0.0606622
151 -0.0607038
152 -0.0695178
153 -0.0697422
154 -0.0697549
155 -0.069782
156 -0.0698163
157 -0.0697871
158 -0.0696472
159 -0.0695973
160 -0.0695362
161 -0.0695261
162 -0.0694532
163 -0.0693834
164 -0.0694137
165 -0.0694042
166 -0.0693499
167 -0.0693303
168 -0.0693374
169 -0.0692228
170 -0.0692269
171 -0.0691772
172 -0.0692705
173 -0.0691827
174 -0.0691507
175 -0.0691074
176 -0.0693441
177 -0.0694732
178 -0.0695668
179 -0.0697166
180 -0.069725
181 -0.0696315
182 -0.0693569
183 -0.0693661
184 -0.0694022
185 -0.0695012
186 -0.0695601
187 -0.0696281
188 -0.0697384
189 -0.0696602
190 -0.0696575
191 -0.0697252
192 -0.0697334
193 -0.0697751
