0 0
1 -0.306885
2 -0.155238
3 -0.264459
4 -0.220062
5 -0.0867954
6 -1.10188
7 -1.36135
8 -1.24859
9 -1.55053
10 -7.00333
11 -6.71633
12 -4.7048
13 -5.02441
14 -5.18514
15 -5.9104
16 -6.02269
17 -5.79071
18 -6.15044
19 -5.78291
20 -5.47972
21 -5.8065
22 -5.87767
23 -6.0698
24 -5.23681
25 -5.38216
26 -5.53196
27 -5.5617
28 -5.83147
29 -5.83313
30 -6.04397
31 -6.70894
32 -6.79746
33 -6.72784
34 -6.73999
35 -6.92918
36 -6.89199
37 -7.00791
38 -6.82828
39 -7.08836
40 -7.36444
41 -7.151
42 -7.10471
43 -7.01868
44 -7.14245
45 -7.7886
46 -8.10166
47 -7.93722
48 -8.09167
49 -8.05041
50 -7.77488
51 -7.61586
52 -7.82434
53 -8.10019
54 -8.28819
55 -8.29666
56 -8.23283
57 -8.19078
58 -7.92393
59 -8.16335
60 -8.09394
61 -7.81642
62 -7.143
63 -7.09671
64 -7.26163
65 -7.54102
66 -7.81951
67 -9.77292
68 -9.56271
69 -9.5854
70 -9.53772
71 -9.29543
72 -9.52767
73 -9.72576
74 -9.74491
75 -9.84868
76 -10.3077
77 -10.048
78 -9.80547
79 -9.99378
80 -10.4124
81 -10.7777
82 -10.9579
83 -11.2382
84 -11.0202
85 -10.7452
86 -11.0923
87 -11.3249
88 -11.8306
89 -11.477
90 -11.0328
91 -11.356
92 -11.8114
93 -11.9501
94 -12.0832
95 -11.7902
96 -11.9615
97 -12.276
98 -11.6955
99 -11.717
100 -11.4106
101 -11.3633
102 -9.92638
103 -9.76639
104 -9.73247
105 -10.0009
106 -9.92432
107 -8.82702
108 59.8359
109 59.5434
110 59.9672
111 59.8135
112 59.6897
113 59.5397
114 59.2641
115 81.7496
116 82.0444
117 82.3356
118 82.4435
119 82.4927
120 82.6841
121 82.4957
122 82.1804
123 82.1017
124 82.2379
125 82.2777
126 82.0579
127 82.398
128 82.0984
129 82.5063
130 82.2053
131 82.4789
132 82.0985
133 82.2129
134 82.209
135 82.5413
136 82.7958
137 82.6755
138 82.4161
139 82.6137
140 82.6016
141 82.7529
142 82.8651
143 82.6697
144 82.8294
145 83.0808
146 82.9504
147 83.1504
148 82.8791
149 83.127
150 83.1434
151 83.029
152 249.508
153 249.825
154 249.975
155 249.999
156 249.963
157 249.964
158 250.217
159 250.53
160 250.288
161 250.497
162 250.439
163 250.538
164 250.709
165 250.876
166 250.695
167 251.073
168 250.746
169 250.479
170 250.739
171 251.055
172 250.949
173 250.753
174 250.599
175 250.245
176 250.588
177 250.398
178 250.81
179 250.526
180 250.199
181 250.462
182 250.117
183 249.986
184 250.024
185 250.401
186 250.689
187 251.035
188 250.928
189 250.841
190 251.046
191 251.312
192 251.182
193 251.333
