0 0
1 -8.66709e-06
2 5.48048e-05
3 0.000145642
4 0.000360761
5 0.000400513
6 0.00181996
7 0.00148429
8 0.00156426
9 0.00154779
10 -0.00506961
11 -0.00503711
12 -0.00461377
13 -0.00476978
14 -0.0047698
15 -0.00538627
16 -0.00536277
17 -0.00530918
18 -0.00517063
19 -0.00497867
20 -0.00512202
21 -0.00506897
22 -0.00505045
23 -0.00515184
24 -0.0090946
25 -0.00903142
26 -0.00884208
27 -0.00890622
28 -0.00891537
29 -0.0089705
30 -0.00900396
31 -0.00804541
32 -0.00812461
33 -0.00747646
34 -0.00754983
35 -0.00731134
36 -0.00744299
37 -0.0074244
38 -0.00743789
39 -0.00747702
40 -0.00732
41 -0.00731211
42 -0.00735421
43 -0.00724205
44 -0.00720401
45 -0.00783381
46 -0.00776853
47 -0.00778206
48 -0.00768291
49 -0.0074441
50 -0.0073836
51 -0.00736887
52 -0.00745309
53 -0.00743736
54 -0.00764644
55 -0.00764096
56 -0.00760439
57 -0.00766886
58 -0.00766202
59 -0.00766881
60 -0.0076068
61 -0.00800558
62 -0.00814556
63 -0.00802956
64 -0.00805355
65 -0.00806122
66 -0.00807583
67 -0.0079828
68 -0.00798145
69 -0.00801414
70 -0.00804223
71 -0.00796356
72 -0.00792526
73 -0.00801513
74 -0.00808447
75 -0.0080979
76 -0.00804697
77 -0.0080221
78 -0.00800252
79 -0.00803203
80 -0.00788581
81 -0.00794674
82 -0.0079149
83 -0.00799745
84 -0.0080815
85 -0.00809944
86 -0.00821963
87 -0.00820382
88 -0.0080543
89 -0.00820172
90 -0.00954515
91 -0.00954121
92 -0.00917508
93 -0.00918503
94 -0.0091816
95 -0.00904929
96 -0.00906023
97 -0.00984702
98 -0.0100413
99 -0.0100513
100 -0.00990884
101 -0.0100003
102 -0.0104994
103 -0.0105269
104 -0.0106982
105 -0.0107201
106 -0.0107582
107 -0.0109332
108 -0.0290809
109 -0.0290338
110 -0.0292838
111 -0.0292179
112 -0.0294103
113 -0.0294464
114 -0.0294155
115 -0.0504274
116 -0.0504672
117 -0.0505021
118 -0.050762
119 -0.050723
120 -0.0505757
121 -0.0503528
122 -0.0503301
123 -0.0503884
124 -0.0503931
125 -0.0507522
126 -0.0506406
127 -0.050729
128 -0.0507545
129 -0.0509888
130 -0.0509914
131 -0.0510235
132 -0.0510377
133 -0.0511437
134 -0.0494025
135 -0.0495096
136 -0.0493896
137 -0.04948
138 -0.0494568
139 -0.0493934
140 -0.0496353
141 -0.0496346
142 -0.0496006
143 -0.0496539
144 -0.0495137
145 -0.0494285
146 -0.0494074
147 -0.049488
148 -0.0494682
149 -0.049241
150 -0.049235
151 -0.0493029
152 -0.0359998
153 -0.0360412
154 -0.0360368
155 -0.0359561
156 -0.0359522
157 -0.0359035
158 -0.0357871
159 -0.0357271
160 -0.035739
161 -0.0357402
162 -0.0355971
163 -0.0356739
164 -0.0356716
165 -0.035814
166 -0.0357526
167 -0.0357126
168 -0.0356999
169 -0.0356261
170 -0.0356677
171 -0.0355904
172 -0.0356826
173 -0.0356367
174 -0.0356449
175 -0.0355946
176 -0.0357964
177 -0.0358854
178 -0.0359016
179 -0.0360204
180 -0.0360075
181 -0.0358808
182 -0.0357822
183 -0.0359097
184 -0.0361339
185 -0.0361204
186 -0.0361643
187 -0.0361565
188 -0.0361075
189 -0.0360512
190 -0.0359495
191 -0.0359836
192 -0.0359839
193 -0.0360562
