0 0
1 -2.44777
2 6.70458
3 12.4628
4 6.12921
5 4.68693
6 -0.748687
7 0.67703
8 -16.5276
9 -15.5524
10 -19.5702
11 -14.7621
12 -9.16852
13 -17.6306
14 -19.1943
15 -5.57213
16 7.38399
17 6.79494
18 17.6405
19 20.3558
20 25.7447
21 12.6919
22 19.6297
23 18.2789
24 16.1769
25 0.768369
26 -18.1512
27 -6.35682
28 -42.4757
29 -83.3658
30 -100.815
31 -93.2681
32 -101.381
33 -87.2392
34 -102.774
35 -116.265
36 -144.531
37 -143.099
38 -103.22
39 -114.073
40 -111.81
41 -122.939
42 -130.068
43 -120.215
44 -138.785
45 -134.917
46 -166.272
47 -177.642
48 -197.36
49 -208.706
50 -229.479
51 -201.915
52 -195.831
53 -198.647
54 -201.128
55 -186.011
56 -204.746
57 -214.83
58 -222.477
59 -221.462
60 -257.602
61 -272.22
62 -278.323
63 -297.877
64 -303.478
65 -317.188
66 -324.201
67 -337.518
68 -324.666
69 -338.268
70 -334.396
71 -329.181
72 -334.342
73 -365.554
74 -379.626
75 -339.396
76 -324.279
77 -302.87
78 -263.254
79 -268.396
80 -269.712
81 -278.346
82 -269.996
83 -277.74
84 -314.38
85 -305.803
86 -309.257
87 -365.904
88 -389.992
89 -400.07
90 -400.183
91 -403.298
92 -394.828
93 -383.24
94 -402.3
95 -392.033
96 -404.222
97 -400.893
98 -389.444
99 -385.482
100 -417.898
101 -458.814
102 -459.391
103 -443.382
104 -454.252
105 -434.66
106 -441.069
107 -438.259
108 -402.992
109 -399.769
110 -416.394
111 -436.35
112 -463.225
113 -487.122
114 -482.638
115 -460.873
116 -480.695
117 -449.503
118 -443.041
119 -486.921
120 -481.367
121 -470.288
122 -470.081
123 -463.635
124 -461.541
125 -483.755
126 -490.678
127 -481.071
128 -462.365
129 -430.946
130 -523.039
131 -531.125
132 -513.321
133 -499.72
134 -513.565
135 -490.544
136 -493.618
137 -497.315
138 -483.833
139 -493.907
140 -523.086
141 -528.419
142 -520.91
143 -585.552
144 -578.133
145 -604.985
146 -594.758
147 -497.007
148 -548.384
149 -565.214
150 -603.491
151 -646.572
152 -491.084
153 -485.765
154 -425.328
155 -527.926
156 -532.776
157 -581.859
158 -572.899
159 -672.227
160 -613.601
161 -613.795
162 -562.633
163 -583.886
164 -555.329
165 -559.779
166 -529.582
167 -490.601
168 -543.209
169 -555.675
170 -595.634
171 -594.368
172 -619.525
173 -632.343
174 -626.61
175 -641.24
176 -641.023
177 -613.345
178 -600.853
179 -593.785
180 -604.31
181 -635.36
182 -645.489
183 -676.331
184 -677.706
185 -666.398
186 -629.362
187 -672.966
188 -675.298
189 -676.69
190 -677.026
191 -709.09
192 -732.195
193 -738.164
